digraph Tree {
node [shape=box] ;
0 [label="Number of concave portions of contour_m <= 0.049\nentropy = 0.952\nsamples = 455\nvalue = [286, 169]\nclass = Beningn"] ;
1 [label="Radius <= 16.83\nentropy = 0.259\nsamples = 274\nvalue = [262, 12]\nclass = Beningn"] ;
0 -> 1 [labeldistance=2.5, labelangle=45, headlabel="True"] ;
2 [label="Texture_m <= 22.455\nentropy = 0.091\nsamples = 259\nvalue = [256, 3]\nclass = Beningn"] ;
1 -> 2 ;
3 [label="entropy = 0.0\nsamples = 225\nvalue = [225, 0]\nclass = Beningn"] ;
2 -> 3 ;
4 [label="Radius <= 14.42\nentropy = 0.431\nsamples = 34\nvalue = [31, 3]\nclass = Beningn"] ;
2 -> 4 ;
5 [label="entropy = 0.0\nsamples = 24\nvalue = [24, 0]\nclass = Beningn"] ;
4 -> 5 ;
6 [label="Texture_v <= 1.358\nentropy = 0.881\nsamples = 10\nvalue = [7, 3]\nclass = Beningn"] ;
4 -> 6 ;
7 [label="entropy = 0.0\nsamples = 6\nvalue = [6, 0]\nclass = Beningn"] ;
6 -> 7 ;
8 [label="Symmetry_m <= 0.155\nentropy = 0.811\nsamples = 4\nvalue = [1, 3]\nclass = Malign"] ;
6 -> 8 ;
9 [label="entropy = 0.0\nsamples = 1\nvalue = [1, 0]\nclass = Beningn"] ;
8 -> 9 ;
10 [label="entropy = 0.0\nsamples = 3\nvalue = [0, 3]\nclass = Malign"] ;
8 -> 10 ;
11 [label="Texture <= 19.91\nentropy = 0.971\nsamples = 15\nvalue = [6, 9]\nclass = Malign"] ;
1 -> 11 ;
12 [label="entropy = 0.0\nsamples = 5\nvalue = [5, 0]\nclass = Beningn"] ;
11 -> 12 ;
13 [label="Texture_v <= 1.843\nentropy = 0.469\nsamples = 10\nvalue = [1, 9]\nclass = Malign"] ;
11 -> 13 ;
14 [label="entropy = 0.0\nsamples = 9\nvalue = [0, 9]\nclass = Malign"] ;
13 -> 14 ;
15 [label="entropy = 0.0\nsamples = 1\nvalue = [1, 0]\nclass = Beningn"] ;
13 -> 15 ;
16 [label="Perimeter <= 114.45\nentropy = 0.565\nsamples = 181\nvalue = [24, 157]\nclass = Malign"] ;
0 -> 16 [labeldistance=2.5, labelangle=-45, headlabel="False"] ;
17 [label="Texture <= 25.655\nentropy = 0.999\nsamples = 50\nvalue = [24, 26]\nclass = Malign"] ;
16 -> 17 ;
18 [label="Smoothness <= 0.14\nentropy = 0.691\nsamples = 27\nvalue = [22, 5]\nclass = Beningn"] ;
17 -> 18 ;
19 [label="entropy = 0.0\nsamples = 16\nvalue = [16, 0]\nclass = Beningn"] ;
18 -> 19 ;
20 [label="Area <= 678.25\nentropy = 0.994\nsamples = 11\nvalue = [6, 5]\nclass = Beningn"] ;
18 -> 20 ;
21 [label="entropy = 0.0\nsamples = 5\nvalue = [5, 0]\nclass = Beningn"] ;
20 -> 21 ;
22 [label="Area_v <= 18.61\nentropy = 0.65\nsamples = 6\nvalue = [1, 5]\nclass = Malign"] ;
20 -> 22 ;
23 [label="entropy = 0.0\nsamples = 1\nvalue = [1, 0]\nclass = Beningn"] ;
22 -> 23 ;
24 [label="entropy = 0.0\nsamples = 5\nvalue = [0, 5]\nclass = Malign"] ;
22 -> 24 ;
25 [label="Concavity_m <= 0.09\nentropy = 0.426\nsamples = 23\nvalue = [2, 21]\nclass = Malign"] ;
17 -> 25 ;
26 [label="entropy = 0.0\nsamples = 2\nvalue = [2, 0]\nclass = Beningn"] ;
25 -> 26 ;
27 [label="entropy = 0.0\nsamples = 21\nvalue = [0, 21]\nclass = Malign"] ;
25 -> 27 ;
28 [label="entropy = 0.0\nsamples = 131\nvalue = [0, 131]\nclass = Malign"] ;
16 -> 28 ;
}